<?xml version="1.0"?>
<opencv_storage>
<opencv_ml_boost>
  <format>3</format>
  <is_classifier>1</is_classifier>
  <var_all>18</var_all>
  <var_count>17</var_count>
  <ord_var_count>17</ord_var_count>
  <cat_var_count>1</cat_var_count>
  <training_params>
    <boosting_type>RealAdaboost</boosting_type>
    <use_surrogates>0</use_surrogates>
    <max_categories>10</max_categories>
    <regression_accuracy>9.9999997764825821e-03</regression_accuracy>
    <max_depth>1</max_depth>
    <min_sample_count>10</min_sample_count>
    <cross_validation_folds>0</cross_validation_folds>
    <weight_trimming_rate>0.</weight_trimming_rate></training_params>
  <global_var_idx>1</global_var_idx>
  <var_idx>
    0 1 2 3 4 5 6 7 8 9 10 11 12 13 14 15 16</var_idx>
  <var_type>
    0 0 0 0 0 0 0 0 0 0 0 0 0 0 0 0 0 1</var_type>
  <cat_ofs>
    0 0 0 0 0 0 0 0 0 0 0 0 0 0 0 0 0 0 0 0 0 0 0 0 0 0 0 0 0 0 0 0 0 0</cat_ofs>
  <class_labels>
    -1 1</class_labels>
  <missing_subst>
    0. 0. 0. 0. 0. 0. 0. 0. 0. 0. 0. 0. 0. 0. 0. 0. 0. 0.</missing_subst>
  <ntrees>100</ntrees>
  <trees>
    <_>
      <nodes>
        <_>
          <depth>0</depth>
          <value>-1.6124043021500776e+00</value>
          <splits>
            <_><var>16</var>
              <quality>8.7148004770278931e-01</quality>
              <le>1.2438189983367920e+00</le></_></splits></_>
        <_>
          <depth>1</depth>
          <value>-6.4014753594278484e-01</value></_>
        <_>
          <depth>1</depth>
          <value>-2.1928481817813812e+00</value></_></nodes></_>
    <_>
      <nodes>
        <_>
          <depth>0</depth>
          <value>5.3265858106991236e-09</value>
          <splits>
            <_><var>5</var>
              <quality>3.5607960820198059e-01</quality>
              <le>3.9547598361968994e-01</le></_></splits></_>
        <_>
          <depth>1</depth>
          <value>4.1346661825527442e-01</value></_>
        <_>
          <depth>1</depth>
          <value>-1.5259593250750298e+00</value></_></nodes></_>
    <_>
      <nodes>
        <_>
          <depth>0</depth>
          <value>-4.1037611255499918e-09</value>
          <splits>
            <_><var>16</var>
              <quality>1.6956725716590881e-01</quality>
              <le>4.3243446350097656e+00</le></_></splits></_>
        <_>
          <depth>1</depth>
          <value>-3.3028880984214715e-01</value></_>
        <_>
          <depth>1</depth>
          <value>5.9282623128723155e-01</value></_></nodes></_>
    <_>
      <nodes>
        <_>
          <depth>0</depth>
          <value>-1.3516414614839924e-08</value>
          <splits>
            <_><var>15</var>
              <quality>1.2626567482948303e-01</quality>
              <le>6.7846755981445312e+00</le></_></splits></_>
        <_>
          <depth>1</depth>
          <value>-5.7564577324601141e+00</value></_>
        <_>
          <depth>1</depth>
          <value>1.2694317308679215e-01</value></_></nodes></_>
    <_>
      <nodes>
        <_>
          <depth>0</depth>
          <value>-4.0234661555288594e-04</value>
          <splits>
            <_><var>11</var>
              <quality>1.3614884018898010e-01</quality>
              <le>8.7349504232406616e-02</le></_></splits></_>
        <_>
          <depth>1</depth>
          <value>1.3664531280924636e-01</value></_>
        <_>
          <depth>1</depth>
          <value>-5.7564577324601141e+00</value></_></nodes></_>
    <_>
      <nodes>
        <_>
          <depth>0</depth>
          <value>-4.3473298033573253e-04</value>
          <splits>
            <_><var>14</var>
              <quality>9.9181942641735077e-02</quality>
              <le>2.0750000840052962e-04</le></_></splits></_>
        <_>
          <depth>1</depth>
          <value>-1.7991584320644021e+00</value></_>
        <_>
          <depth>1</depth>
          <value>1.0475863481474577e-01</value></_></nodes></_>
    <_>
      <nodes>
        <_>
          <depth>0</depth>
          <value>4.2102299406858508e-10</value>
          <splits>
            <_><var>16</var>
              <quality>7.6539799571037292e-02</quality>
              <le>1.3414235115051270e+00</le></_></splits></_>
        <_>
          <depth>1</depth>
          <value>2.9970802280788922e-01</value></_>
        <_>
          <depth>1</depth>
          <value>-2.6930964063382545e-01</value></_></nodes></_>
    <_>
      <nodes>
        <_>
          <depth>0</depth>
          <value>6.2649149919463681e-09</value>
          <splits>
            <_><var>7</var>
              <quality>8.4124222397804260e-02</quality>
              <le>3.4894000738859177e-02</le></_></splits></_>
        <_>
          <depth>1</depth>
          <value>-2.7154727775686760e-01</value></_>
        <_>
          <depth>1</depth>
          <value>3.2872344297687012e-01</value></_></nodes></_>
    <_>
      <nodes>
        <_>
          <depth>0</depth>
          <value>1.1026944458068296e-08</value>
          <splits>
            <_><var>16</var>
              <quality>6.7521661520004272e-02</quality>
              <le>8.8282001018524170e-01</le></_></splits></_>
        <_>
          <depth>1</depth>
          <value>-9.9306897810512706e-01</value></_>
        <_>
          <depth>1</depth>
          <value>8.9236408961765379e-02</value></_></nodes></_>
    <_>
      <nodes>
        <_>
          <depth>0</depth>
          <value>1.5227750148742684e-09</value>
          <splits>
            <_><var>12</var>
              <quality>5.7768519967794418e-02</quality>
              <le>3.4599497914314270e-02</le></_></splits></_>
        <_>
          <depth>1</depth>
          <value>-2.0542093072315443e-01</value></_>
        <_>
          <depth>1</depth>
          <value>2.9329506385191956e-01</value></_></nodes></_>
    <_>
      <nodes>
        <_>
          <depth>0</depth>
          <value>7.1282091289851732e-10</value>
          <splits>
            <_><var>10</var>
              <quality>4.7653831541538239e-02</quality>
              <le>9.2948800325393677e-01</le></_></splits></_>
        <_>
          <depth>1</depth>
          <value>-3.7539588527553563e-01</value></_>
        <_>
          <depth>1</depth>
          <value>1.3364056933658328e-01</value></_></nodes></_>
    <_>
      <nodes>
        <_>
          <depth>0</depth>
          <value>-2.3203439170599248e-11</value>
          <splits>
            <_><var>7</var>
              <quality>4.2299609631299973e-02</quality>
              <le>7.6232999563217163e-02</le></_></splits></_>
        <_>
          <depth>1</depth>
          <value>-8.5559195910864125e-02</value></_>
        <_>
          <depth>1</depth>
          <value>5.4345097634226791e-01</value></_></nodes></_>
    <_>
      <nodes>
        <_>
          <depth>0</depth>
          <value>3.9799305914608823e-09</value>
          <splits>
            <_><var>11</var>
              <quality>3.8849256932735443e-02</quality>
              <le>2.7111999690532684e-02</le></_></splits></_>
        <_>
          <depth>1</depth>
          <value>2.3226274931008062e-01</value></_>
        <_>
          <depth>1</depth>
          <value>-1.7193570079501450e-01</value></_></nodes></_>
    <_>
      <nodes>
        <_>
          <depth>0</depth>
          <value>5.3791499853710788e-09</value>
          <splits>
            <_><var>4</var>
              <quality>6.0267698019742966e-02</quality>
              <le>2.8794999234378338e-03</le></_></splits></_>
        <_>
          <depth>1</depth>
          <value>-2.9576072041151963e-01</value></_>
        <_>
          <depth>1</depth>
          <value>2.1283562329725289e-01</value></_></nodes></_>
    <_>
      <nodes>
        <_>
          <depth>0</depth>
          <value>-6.5259614421675508e-10</value>
          <splits>
            <_><var>5</var>
              <quality>4.4234834611415863e-02</quality>
              <le>3.9464500546455383e-01</le></_></splits></_>
        <_>
          <depth>1</depth>
          <value>-7.1087265341526318e-02</value></_>
        <_>
          <depth>1</depth>
          <value>7.3039810804980698e-01</value></_></nodes></_>
    <_>
      <nodes>
        <_>
          <depth>0</depth>
          <value>-2.5241016007743942e-09</value>
          <splits>
            <_><var>14</var>
              <quality>3.5548318177461624e-02</quality>
              <le>2.0166501402854919e-02</le></_></splits></_>
        <_>
          <depth>1</depth>
          <value>-5.6896669792392704e-02</value></_>
        <_>
          <depth>1</depth>
          <value>7.3392606687121786e-01</value></_></nodes></_>
    <_>
      <nodes>
        <_>
          <depth>0</depth>
          <value>2.3374992997632944e-09</value>
          <splits>
            <_><var>13</var>
              <quality>3.4721288830041885e-02</quality>
              <le>2.9489998705685139e-03</le></_></splits></_>
        <_>
          <depth>1</depth>
          <value>5.2706445653571542e-02</value></_>
        <_>
          <depth>1</depth>
          <value>-7.9171114860359160e-01</value></_></nodes></_>
    <_>
      <nodes>
        <_>
          <depth>0</depth>
          <value>-6.2720317867618187e-10</value>
          <splits>
            <_><var>5</var>
              <quality>4.3844752013683319e-02</quality>
              <le>2.3257400095462799e-01</le></_></splits></_>
        <_>
          <depth>1</depth>
          <value>1.6434501071878907e-01</value></_>
        <_>
          <depth>1</depth>
          <value>-2.7598212639617881e-01</value></_></nodes></_>
    <_>
      <nodes>
        <_>
          <depth>0</depth>
          <value>-5.7090145714833476e-09</value>
          <splits>
            <_><var>15</var>
              <quality>3.2534491270780563e-02</quality>
              <le>1.7631542205810547e+01</le></_></splits></_>
        <_>
          <depth>1</depth>
          <value>3.2545971613491223e-02</value></_>
        <_>
          <depth>1</depth>
          <value>-5.7564577324601141e+00</value></_></nodes></_>
    <_>
      <nodes>
        <_>
          <depth>0</depth>
          <value>-1.0292850222242231e-04</value>
          <splits>
            <_><var>15</var>
              <quality>3.7767756730318069e-02</quality>
              <le>1.0030331611633301e+01</le></_></splits></_>
        <_>
          <depth>1</depth>
          <value>-2.5846972136974022e-01</value></_>
        <_>
          <depth>1</depth>
          <value>1.5044282829346528e-01</value></_></nodes></_>
    <_>
      <nodes>
        <_>
          <depth>0</depth>
          <value>6.2555153998483688e-09</value>
          <splits>
            <_><var>15</var>
              <quality>4.0094267576932907e-02</quality>
              <le>8.4215164184570312e+00</le></_></splits></_>
        <_>
          <depth>1</depth>
          <value>4.9272294637876818e-01</value></_>
        <_>
          <depth>1</depth>
          <value>-8.8080868147654590e-02</value></_></nodes></_>
    <_>
      <nodes>
        <_>
          <depth>0</depth>
          <value>-1.7723444965304601e-09</value>
          <splits>
            <_><var>3</var>
              <quality>3.0643070116639137e-02</quality>
              <le>2.9561001062393188e-01</le></_></splits></_>
        <_>
          <depth>1</depth>
          <value>-3.0198793874198365e-01</value></_>
        <_>
          <depth>1</depth>
          <value>1.0492050184393949e-01</value></_></nodes></_>
    <_>
      <nodes>
        <_>
          <depth>0</depth>
          <value>3.9594907196059997e-09</value>
          <splits>
            <_><var>13</var>
              <quality>3.4639764577150345e-02</quality>
              <le>1.1500000255182385e-05</le></_></splits></_>
        <_>
          <depth>1</depth>
          <value>3.3296549472218318e-01</value></_>
        <_>
          <depth>1</depth>
          <value>-1.0827170053901339e-01</value></_></nodes></_>
    <_>
      <nodes>
        <_>
          <depth>0</depth>
          <value>2.3269184302987606e-09</value>
          <splits>
            <_><var>12</var>
              <quality>3.3238925039768219e-02</quality>
              <le>4.4395001605153084e-03</le></_></splits></_>
        <_>
          <depth>1</depth>
          <value>-3.5662915463516659e-01</value></_>
        <_>
          <depth>1</depth>
          <value>9.7428380343508730e-02</value></_></nodes></_>
    <_>
      <nodes>
        <_>
          <depth>0</depth>
          <value>9.0597218533961197e-10</value>
          <splits>
            <_><var>11</var>
              <quality>3.4971375018358231e-02</quality>
              <le>2.9564499855041504e-02</le></_></splits></_>
        <_>
          <depth>1</depth>
          <value>2.1960583461925859e-01</value></_>
        <_>
          <depth>1</depth>
          <value>-1.6323237028388152e-01</value></_></nodes></_>
    <_>
      <nodes>
        <_>
          <depth>0</depth>
          <value>1.0974048324677469e-09</value>
          <splits>
            <_><var>16</var>
              <quality>3.0185567215085030e-02</quality>
              <le>1.2148544788360596e+00</le></_></splits></_>
        <_>
          <depth>1</depth>
          <value>1.9231677329613925e-01</value></_>
        <_>
          <depth>1</depth>
          <value>-1.6024553540504696e-01</value></_></nodes></_>
    <_>
      <nodes>
        <_>
          <depth>0</depth>
          <value>2.5297812669528891e-09</value>
          <splits>
            <_><var>16</var>
              <quality>3.5836677998304367e-02</quality>
              <le>3.5768854618072510e+00</le></_></splits></_>
        <_>
          <depth>1</depth>
          <value>-1.4718925320355719e-01</value></_>
        <_>
          <depth>1</depth>
          <value>2.5033036046153029e-01</value></_></nodes></_>
    <_>
      <nodes>
        <_>
          <depth>0</depth>
          <value>4.6267849337568594e-09</value>
          <splits>
            <_><var>13</var>
              <quality>3.2082546502351761e-02</quality>
              <le>9.9149998277425766e-04</le></_></splits></_>
        <_>
          <depth>1</depth>
          <value>-1.5055944748554717e-01</value></_>
        <_>
          <depth>1</depth>
          <value>2.1808972298595919e-01</value></_></nodes></_>
    <_>
      <nodes>
        <_>
          <depth>0</depth>
          <value>-6.9578895907150363e-09</value>
          <splits>
            <_><var>16</var>
              <quality>2.5978950783610344e-02</quality>
              <le>1.3414235115051270e+00</le></_></splits></_>
        <_>
          <depth>1</depth>
          <value>1.5649611938500790e-01</value></_>
        <_>
          <depth>1</depth>
          <value>-1.6894605111314598e-01</value></_></nodes></_>
    <_>
      <nodes>
        <_>
          <depth>0</depth>
          <value>1.4911698520383102e-09</value>
          <splits>
            <_><var>15</var>
              <quality>2.7741227298974991e-02</quality>
              <le>1.0030331611633301e+01</le></_></splits></_>
        <_>
          <depth>1</depth>
          <value>-2.4034287100980542e-01</value></_>
        <_>
          <depth>1</depth>
          <value>1.1818470272377021e-01</value></_></nodes></_>
    <_>
      <nodes>
        <_>
          <depth>0</depth>
          <value>1.2066483353485053e-09</value>
          <splits>
            <_><var>0</var>
              <quality>2.2929264232516289e-02</quality>
              <le>1.4500000000000000e+01</le></_></splits></_>
        <_>
          <depth>1</depth>
          <value>-3.2549830544731269e-02</value></_>
        <_>
          <depth>1</depth>
          <value>8.7654547586489151e-01</value></_></nodes></_>
    <_>
      <nodes>
        <_>
          <depth>0</depth>
          <value>1.0131608874923876e-09</value>
          <splits>
            <_><var>0</var>
              <quality>2.5412207469344139e-02</quality>
              <le>7.5000000000000000e+00</le></_></splits></_>
        <_>
          <depth>1</depth>
          <value>1.1502014542265662e-01</value></_>
        <_>
          <depth>1</depth>
          <value>-2.2566462755735861e-01</value></_></nodes></_>
    <_>
      <nodes>
        <_>
          <depth>0</depth>
          <value>-1.0133485727480707e-09</value>
          <splits>
            <_><var>15</var>
              <quality>2.6983359828591347e-02</quality>
              <le>1.3897794723510742e+01</le></_></splits></_>
        <_>
          <depth>1</depth>
          <value>7.2465345216039007e-02</value></_>
        <_>
          <depth>1</depth>
          <value>-3.9191947233183616e-01</value></_></nodes></_>
    <_>
      <nodes>
        <_>
          <depth>0</depth>
          <value>-1.3330065957722849e-09</value>
          <splits>
            <_><var>15</var>
              <quality>2.8316868469119072e-02</quality>
              <le>1.7282230377197266e+01</le></_></splits></_>
        <_>
          <depth>1</depth>
          <value>-3.1325858439020714e-02</value></_>
        <_>
          <depth>1</depth>
          <value>1.4950032919274430e+00</value></_></nodes></_>
    <_>
      <nodes>
        <_>
          <depth>0</depth>
          <value>-1.0867572964465694e-09</value>
          <splits>
            <_><var>3</var>
              <quality>2.3765049874782562e-02</quality>
              <le>2.3922500014305115e-01</le></_></splits></_>
        <_>
          <depth>1</depth>
          <value>-4.4047590820964577e-01</value></_>
        <_>
          <depth>1</depth>
          <value>5.7461275787089872e-02</value></_></nodes></_>
    <_>
      <nodes>
        <_>
          <depth>0</depth>
          <value>-4.6433878985641629e-10</value>
          <splits>
            <_><var>11</var>
              <quality>2.3082388564944267e-02</quality>
              <le>3.7965001538395882e-03</le></_></splits></_>
        <_>
          <depth>1</depth>
          <value>8.1825222304177070e-01</value></_>
        <_>
          <depth>1</depth>
          <value>-3.4254291154875348e-02</value></_></nodes></_>
    <_>
      <nodes>
        <_>
          <depth>0</depth>
          <value>-3.3342223437774863e-10</value>
          <splits>
            <_><var>1</var>
              <quality>2.1811915561556816e-02</quality>
              <le>2.1964800357818604e-01</le></_></splits></_>
        <_>
          <depth>1</depth>
          <value>-3.1903763654965091e-02</value></_>
        <_>
          <depth>1</depth>
          <value>8.3642418151598164e-01</value></_></nodes></_>
    <_>
      <nodes>
        <_>
          <depth>0</depth>
          <value>-9.2659191516612325e-10</value>
          <splits>
            <_><var>6</var>
              <quality>2.7687635272741318e-02</quality>
              <le>7.6125001907348633e-01</le></_></splits></_>
        <_>
          <depth>1</depth>
          <value>5.2715428482940099e-02</value></_>
        <_>
          <depth>1</depth>
          <value>-5.8420461746014107e-01</value></_></nodes></_>
    <_>
      <nodes>
        <_>
          <depth>0</depth>
          <value>2.5776936140477511e-11</value>
          <splits>
            <_><var>6</var>
              <quality>2.1051678806543350e-02</quality>
              <le>1.4185398817062378e-01</le></_></splits></_>
        <_>
          <depth>1</depth>
          <value>-5.7564577324601141e+00</value></_>
        <_>
          <depth>1</depth>
          <value>2.1054789801985902e-02</value></_></nodes></_>
    <_>
      <nodes>
        <_>
          <depth>0</depth>
          <value>-6.6581527429980351e-05</value>
          <splits>
            <_><var>16</var>
              <quality>2.5870034471154213e-02</quality>
              <le>9.9741399288177490e-01</le></_></splits></_>
        <_>
          <depth>1</depth>
          <value>3.2002058583466625e-01</value></_>
        <_>
          <depth>1</depth>
          <value>-8.3824016598772116e-02</value></_></nodes></_>
    <_>
      <nodes>
        <_>
          <depth>0</depth>
          <value>-4.3934461643619946e-10</value>
          <splits>
            <_><var>12</var>
              <quality>2.5713698938488960e-02</quality>
              <le>1.0734999086707830e-03</le></_></splits></_>
        <_>
          <depth>1</depth>
          <value>7.4821908016195615e-01</value></_>
        <_>
          <depth>1</depth>
          <value>-4.0574680775552416e-02</value></_></nodes></_>
    <_>
      <nodes>
        <_>
          <depth>0</depth>
          <value>5.7333782133452824e-10</value>
          <splits>
            <_><var>9</var>
              <quality>2.7604410424828529e-02</quality>
              <le>5.0338900089263916e-01</le></_></splits></_>
        <_>
          <depth>1</depth>
          <value>-2.9136635392070909e-01</value></_>
        <_>
          <depth>1</depth>
          <value>9.7717026950761843e-02</value></_></nodes></_>
    <_>
      <nodes>
        <_>
          <depth>0</depth>
          <value>5.5620334695029397e-09</value>
          <splits>
            <_><var>6</var>
              <quality>1.9580552354454994e-02</quality>
              <le>1.4217999577522278e-01</le></_></splits></_>
        <_>
          <depth>1</depth>
          <value>2.6184095721252407e+00</value></_>
        <_>
          <depth>1</depth>
          <value>-1.9792469307084871e-02</value></_></nodes></_>
    <_>
      <nodes>
        <_>
          <depth>0</depth>
          <value>-2.6644958468929551e-10</value>
          <splits>
            <_><var>6</var>
              <quality>2.9685748741030693e-02</quality>
              <le>2.5077950954437256e-01</le></_></splits></_>
        <_>
          <depth>1</depth>
          <value>-9.4485759511799217e-01</value></_>
        <_>
          <depth>1</depth>
          <value>4.0276568796298477e-02</value></_></nodes></_>
    <_>
      <nodes>
        <_>
          <depth>0</depth>
          <value>4.7807469071751775e-10</value>
          <splits>
            <_><var>6</var>
              <quality>1.9497366622090340e-02</quality>
              <le>3.0608549714088440e-01</le></_></splits></_>
        <_>
          <depth>1</depth>
          <value>3.4818934729523182e-01</value></_>
        <_>
          <depth>1</depth>
          <value>-5.8307279676959471e-02</value></_></nodes></_>
    <_>
      <nodes>
        <_>
          <depth>0</depth>
          <value>-1.6038814191399675e-09</value>
          <splits>
            <_><var>1</var>
              <quality>2.9633861035108566e-02</quality>
              <le>1.1569750308990479e-01</le></_></splits></_>
        <_>
          <depth>1</depth>
          <value>-3.2359235479602971e-01</value></_>
        <_>
          <depth>1</depth>
          <value>9.5037190101232433e-02</value></_></nodes></_>
    <_>
      <nodes>
        <_>
          <depth>0</depth>
          <value>6.8525118865575511e-10</value>
          <splits>
            <_><var>10</var>
              <quality>2.0758034661412239e-02</quality>
              <le>9.6121251583099365e-01</le></_></splits></_>
        <_>
          <depth>1</depth>
          <value>-1.0874283618760586e-01</value></_>
        <_>
          <depth>1</depth>
          <value>1.9404213986523605e-01</value></_></nodes></_>
    <_>
      <nodes>
        <_>
          <depth>0</depth>
          <value>-4.2286254121681948e-09</value>
          <splits>
            <_><var>10</var>
              <quality>2.0354438573122025e-02</quality>
              <le>9.3721747398376465e-01</le></_></splits></_>
        <_>
          <depth>1</depth>
          <value>1.6524639211660500e-01</value></_>
        <_>
          <depth>1</depth>
          <value>-1.2494152376577082e-01</value></_></nodes></_>
    <_>
      <nodes>
        <_>
          <depth>0</depth>
          <value>-4.1329801418861994e-09</value>
          <splits>
            <_><var>5</var>
              <quality>1.7735259607434273e-02</quality>
              <le>8.7627100944519043e-01</le></_></splits></_>
        <_>
          <depth>1</depth>
          <value>1.7737116027756527e-02</value></_>
        <_>
          <depth>1</depth>
          <value>-5.7564577324601141e+00</value></_></nodes></_>
    <_>
      <nodes>
        <_>
          <depth>0</depth>
          <value>-5.6090407175989147e-05</value>
          <splits>
            <_><var>16</var>
              <quality>1.5308727510273457e-02</quality>
              <le>4.9831113815307617e+00</le></_></splits></_>
        <_>
          <depth>1</depth>
          <value>5.7011006561827900e-02</value></_>
        <_>
          <depth>1</depth>
          <value>-2.7535942104222766e-01</value></_></nodes></_>
    <_>
      <nodes>
        <_>
          <depth>0</depth>
          <value>-1.2542367160605431e-09</value>
          <splits>
            <_><var>16</var>
              <quality>3.1342629343271255e-02</quality>
              <le>5.5640130043029785e+00</le></_></splits></_>
        <_>
          <depth>1</depth>
          <value>-5.2258612565559810e-02</value></_>
        <_>
          <depth>1</depth>
          <value>6.9362542500622815e-01</value></_></nodes></_>
    <_>
      <nodes>
        <_>
          <depth>0</depth>
          <value>-3.3566305403502727e-09</value>
          <splits>
            <_><var>16</var>
              <quality>2.0417831838130951e-02</quality>
              <le>7.1191940307617188e+00</le></_></splits></_>
        <_>
          <depth>1</depth>
          <value>2.0420666588618665e-02</value></_>
        <_>
          <depth>1</depth>
          <value>-5.7564577324601141e+00</value></_></nodes></_>
    <_>
      <nodes>
        <_>
          <depth>0</depth>
          <value>-6.4576660039908810e-05</value>
          <splits>
            <_><var>8</var>
              <quality>1.9165715202689171e-02</quality>
              <le>3.8044700026512146e-01</le></_></splits></_>
        <_>
          <depth>1</depth>
          <value>3.0181730286503634e+00</value></_>
        <_>
          <depth>1</depth>
          <value>-1.9323284522488826e-02</value></_></nodes></_>
    <_>
      <nodes>
        <_>
          <depth>0</depth>
          <value>-6.2181837495541923e-10</value>
          <splits>
            <_><var>9</var>
              <quality>2.3346625268459320e-02</quality>
              <le>2.9597902297973633e-01</le></_></splits></_>
        <_>
          <depth>1</depth>
          <value>-1.6476716884623679e+00</value></_>
        <_>
          <depth>1</depth>
          <value>2.5148739451780814e-02</value></_></nodes></_>
    <_>
      <nodes>
        <_>
          <depth>0</depth>
          <value>-4.7053122531550592e-10</value>
          <splits>
            <_><var>9</var>
              <quality>3.2035280019044876e-02</quality>
              <le>2.9767650365829468e-01</le></_></splits></_>
        <_>
          <depth>1</depth>
          <value>1.0744686233063294e+00</value></_>
        <_>
          <depth>1</depth>
          <value>-4.0514765258180908e-02</value></_></nodes></_>
    <_>
      <nodes>
        <_>
          <depth>0</depth>
          <value>-1.4353289688524956e-09</value>
          <splits>
            <_><var>7</var>
              <quality>2.4465830996632576e-02</quality>
              <le>3.2258000224828720e-02</le></_></splits></_>
        <_>
          <depth>1</depth>
          <value>1.5894593343092073e-01</value></_>
        <_>
          <depth>1</depth>
          <value>-1.5648447584594041e-01</value></_></nodes></_>
    <_>
      <nodes>
        <_>
          <depth>0</depth>
          <value>-2.8396478582582374e-09</value>
          <splits>
            <_><var>7</var>
              <quality>1.9792204722762108e-02</quality>
              <le>1.5957500785589218e-02</le></_></splits></_>
        <_>
          <depth>1</depth>
          <value>-3.2368635591173939e-01</value></_>
        <_>
          <depth>1</depth>
          <value>6.3351578219282251e-02</value></_></nodes></_>
    <_>
      <nodes>
        <_>
          <depth>0</depth>
          <value>2.0827162212736440e-10</value>
          <splits>
            <_><var>16</var>
              <quality>1.7096240073442459e-02</quality>
              <le>4.9831113815307617e+00</le></_></splits></_>
        <_>
          <depth>1</depth>
          <value>4.9009392925674848e-02</value></_>
        <_>
          <depth>1</depth>
          <value>-3.6443584401369522e-01</value></_></nodes></_>
    <_>
      <nodes>
        <_>
          <depth>0</depth>
          <value>1.7658097206351306e-11</value>
          <splits>
            <_><var>16</var>
              <quality>2.9965011402964592e-02</quality>
              <le>5.5640130043029785e+00</le></_></splits></_>
        <_>
          <depth>1</depth>
          <value>-4.2840910511443557e-02</value></_>
        <_>
          <depth>1</depth>
          <value>8.6705817406727781e-01</value></_></nodes></_>
    <_>
      <nodes>
        <_>
          <depth>0</depth>
          <value>-5.6762794496979889e-10</value>
          <splits>
            <_><var>5</var>
              <quality>1.7834737896919250e-02</quality>
              <le>2.4244949221611023e-01</le></_></splits></_>
        <_>
          <depth>1</depth>
          <value>9.4503409133484234e-02</value></_>
        <_>
          <depth>1</depth>
          <value>-1.9159244682316981e-01</value></_></nodes></_>
    <_>
      <nodes>
        <_>
          <depth>0</depth>
          <value>-2.9327078074313667e-09</value>
          <splits>
            <_><var>0</var>
              <quality>1.7942201346158981e-02</quality>
              <le>1.1500000000000000e+01</le></_></splits></_>
        <_>
          <depth>1</depth>
          <value>-4.9491758528110393e-02</value></_>
        <_>
          <depth>1</depth>
          <value>3.8013538261931129e-01</value></_></nodes></_>
    <_>
      <nodes>
        <_>
          <depth>0</depth>
          <value>2.4955726368059340e-10</value>
          <splits>
            <_><var>13</var>
              <quality>1.8570294603705406e-02</quality>
              <le>6.8795001134276390e-03</le></_></splits></_>
        <_>
          <depth>1</depth>
          <value>1.8572430631888785e-02</value></_>
        <_>
          <depth>1</depth>
          <value>-5.7564577324601141e+00</value></_></nodes></_>
    <_>
      <nodes>
        <_>
          <depth>0</depth>
          <value>-5.8731823787899783e-05</value>
          <splits>
            <_><var>7</var>
              <quality>1.5105084516108036e-02</quality>
              <le>2.2463101148605347e-01</le></_></splits></_>
        <_>
          <depth>1</depth>
          <value>-1.5183132843197620e-02</value></_>
        <_>
          <depth>1</depth>
          <value>3.6849321605942240e+00</value></_></nodes></_>
    <_>
      <nodes>
        <_>
          <depth>0</depth>
          <value>1.7564749651667426e-10</value>
          <splits>
            <_><var>14</var>
              <quality>2.7074323967099190e-02</quality>
              <le>5.7000003289431334e-04</le></_></splits></_>
        <_>
          <depth>1</depth>
          <value>-6.0608072057058004e-01</value></_>
        <_>
          <depth>1</depth>
          <value>5.0053224815173963e-02</value></_></nodes></_>
    <_>
      <nodes>
        <_>
          <depth>0</depth>
          <value>8.7772678006926364e-11</value>
          <splits>
            <_><var>6</var>
              <quality>2.3512106388807297e-02</quality>
              <le>3.0608549714088440e-01</le></_></splits></_>
        <_>
          <depth>1</depth>
          <value>3.8972913752474031e-01</value></_>
        <_>
          <depth>1</depth>
          <value>-6.3438279216366064e-02</value></_></nodes></_>
    <_>
      <nodes>
        <_>
          <depth>0</depth>
          <value>1.2596150773212972e-09</value>
          <splits>
            <_><var>16</var>
              <quality>2.2364294156432152e-02</quality>
              <le>1.2148544788360596e+00</le></_></splits></_>
        <_>
          <depth>1</depth>
          <value>1.4168695612143556e-01</value></_>
        <_>
          <depth>1</depth>
          <value>-1.6025577719976741e-01</value></_></nodes></_>
    <_>
      <nodes>
        <_>
          <depth>0</depth>
          <value>-3.7189780282639030e-09</value>
          <splits>
            <_><var>16</var>
              <quality>3.9703749120235443e-02</quality>
              <le>3.8392276763916016e+00</le></_></splits></_>
        <_>
          <depth>1</depth>
          <value>-1.3093511853074696e-01</value></_>
        <_>
          <depth>1</depth>
          <value>3.1498260120571414e-01</value></_></nodes></_>
    <_>
      <nodes>
        <_>
          <depth>0</depth>
          <value>1.7106014353500142e-09</value>
          <splits>
            <_><var>15</var>
              <quality>3.1636212021112442e-02</quality>
              <le>1.2066712379455566e+01</le></_></splits></_>
        <_>
          <depth>1</depth>
          <value>1.1030486609219090e-01</value></_>
        <_>
          <depth>1</depth>
          <value>-2.9635052206176088e-01</value></_></nodes></_>
    <_>
      <nodes>
        <_>
          <depth>0</depth>
          <value>-6.1763700646813647e-09</value>
          <splits>
            <_><var>7</var>
              <quality>1.9787883386015892e-02</quality>
              <le>1.5885899960994720e-01</le></_></splits></_>
        <_>
          <depth>1</depth>
          <value>2.1523734577848386e-02</value></_>
        <_>
          <depth>1</depth>
          <value>-1.5857393709581478e+00</value></_></nodes></_>
    <_>
      <nodes>
        <_>
          <depth>0</depth>
          <value>5.2190030072670331e-11</value>
          <splits>
            <_><var>11</var>
              <quality>1.9691739231348038e-02</quality>
              <le>8.4913000464439392e-02</le></_></splits></_>
        <_>
          <depth>1</depth>
          <value>-2.5181959021882472e-02</value></_>
        <_>
          <depth>1</depth>
          <value>1.0508673504531776e+00</value></_></nodes></_>
    <_>
      <nodes>
        <_>
          <depth>0</depth>
          <value>5.7738036570717286e-11</value>
          <splits>
            <_><var>8</var>
              <quality>1.8098684027791023e-02</quality>
              <le>1.2856569290161133e+00</le></_></splits></_>
        <_>
          <depth>1</depth>
          <value>6.5180726603162920e-01</value></_>
        <_>
          <depth>1</depth>
          <value>-3.1602675067844255e-02</value></_></nodes></_>
    <_>
      <nodes>
        <_>
          <depth>0</depth>
          <value>-1.0013696548662898e-09</value>
          <splits>
            <_><var>8</var>
              <quality>2.0948773249983788e-02</quality>
              <le>2.6684346199035645e+00</le></_></splits></_>
        <_>
          <depth>1</depth>
          <value>-3.2055703096393662e-01</value></_>
        <_>
          <depth>1</depth>
          <value>6.7677536160112739e-02</value></_></nodes></_>
    <_>
      <nodes>
        <_>
          <depth>0</depth>
          <value>3.6371661225147898e-10</value>
          <splits>
            <_><var>10</var>
              <quality>1.5272449702024460e-02</quality>
              <le>9.9049103260040283e-01</le></_></splits></_>
        <_>
          <depth>1</depth>
          <value>3.4433819698746107e-02</value></_>
        <_>
          <depth>1</depth>
          <value>-4.7683563105240834e-01</value></_></nodes></_>
    <_>
      <nodes>
        <_>
          <depth>0</depth>
          <value>7.9308359816450538e-10</value>
          <splits>
            <_><var>3</var>
              <quality>1.5698704868555069e-02</quality>
              <le>6.3231998682022095e-01</le></_></splits></_>
        <_>
          <depth>1</depth>
          <value>2.1170767808304212e-02</value></_>
        <_>
          <depth>1</depth>
          <value>-9.5411039838764300e-01</value></_></nodes></_>
    <_>
      <nodes>
        <_>
          <depth>0</depth>
          <value>4.9882742356274766e-10</value>
          <splits>
            <_><var>1</var>
              <quality>1.5666015446186066e-02</quality>
              <le>2.2163450717926025e-01</le></_></splits></_>
        <_>
          <depth>1</depth>
          <value>-2.0814680616396897e-02</value></_>
        <_>
          <depth>1</depth>
          <value>9.7927351965774279e-01</value></_></nodes></_>
    <_>
      <nodes>
        <_>
          <depth>0</depth>
          <value>1.1809986308272278e-09</value>
          <splits>
            <_><var>10</var>
              <quality>1.4215583913028240e-02</quality>
              <le>9.6010005474090576e-01</le></_></splits></_>
        <_>
          <depth>1</depth>
          <value>-9.3000787253424394e-02</value></_>
        <_>
          <depth>1</depth>
          <value>1.5451287642541817e-01</value></_></nodes></_>
    <_>
      <nodes>
        <_>
          <depth>0</depth>
          <value>-3.8888465377048287e-09</value>
          <splits>
            <_><var>1</var>
              <quality>1.7445094883441925e-02</quality>
              <le>9.7349002957344055e-02</le></_></splits></_>
        <_>
          <depth>1</depth>
          <value>-3.4853647966028306e-01</value></_>
        <_>
          <depth>1</depth>
          <value>5.2110058442160739e-02</value></_></nodes></_>
    <_>
      <nodes>
        <_>
          <depth>0</depth>
          <value>2.4752251298404678e-09</value>
          <splits>
            <_><var>6</var>
              <quality>2.0545510575175285e-02</quality>
              <le>4.3640300631523132e-01</le></_></splits></_>
        <_>
          <depth>1</depth>
          <value>1.6973609656527880e-01</value></_>
        <_>
          <depth>1</depth>
          <value>-1.2281789471696869e-01</value></_></nodes></_>
    <_>
      <nodes>
        <_>
          <depth>0</depth>
          <value>-1.4490830778550394e-09</value>
          <splits>
            <_><var>12</var>
              <quality>1.9145188853144646e-02</quality>
              <le>3.2127499580383301e-02</le></_></splits></_>
        <_>
          <depth>1</depth>
          <value>-1.3666499628595655e-01</value></_>
        <_>
          <depth>1</depth>
          <value>1.4190443322288326e-01</value></_></nodes></_>
    <_>
      <nodes>
        <_>
          <depth>0</depth>
          <value>4.9293344718415202e-09</value>
          <splits>
            <_><var>16</var>
              <quality>1.7565006390213966e-02</quality>
              <le>9.9741399288177490e-01</le></_></splits></_>
        <_>
          <depth>1</depth>
          <value>2.3417764418041870e-01</value></_>
        <_>
          <depth>1</depth>
          <value>-7.6522323793880492e-02</value></_></nodes></_>
    <_>
      <nodes>
        <_>
          <depth>0</depth>
          <value>-3.6657559344717862e-09</value>
          <splits>
            <_><var>16</var>
              <quality>2.8697773814201355e-02</quality>
              <le>9.0490901470184326e-01</le></_></splits></_>
        <_>
          <depth>1</depth>
          <value>-4.6095385880387030e-01</value></_>
        <_>
          <depth>1</depth>
          <value>6.6704349300871574e-02</value></_></nodes></_>
    <_>
      <nodes>
        <_>
          <depth>0</depth>
          <value>1.7061088068739160e-09</value>
          <splits>
            <_><var>16</var>
              <quality>2.2308891639113426e-02</quality>
              <le>8.0224597454071045e-01</le></_></splits></_>
        <_>
          <depth>1</depth>
          <value>9.2295218838704607e-01</value></_>
        <_>
          <depth>1</depth>
          <value>-3.0683577834453694e-02</value></_></nodes></_>
    <_>
      <nodes>
        <_>
          <depth>0</depth>
          <value>-3.7914960074823254e-10</value>
          <splits>
            <_><var>7</var>
              <quality>1.4438035897910595e-02</quality>
              <le>8.3265006542205811e-03</le></_></splits></_>
        <_>
          <depth>1</depth>
          <value>4.5780694937847977e-01</value></_>
        <_>
          <depth>1</depth>
          <value>-3.3723261423441210e-02</value></_></nodes></_>
    <_>
      <nodes>
        <_>
          <depth>0</depth>
          <value>9.9306340918389551e-11</value>
          <splits>
            <_><var>7</var>
              <quality>1.5393563546240330e-02</quality>
              <le>1.0151550173759460e-01</le></_></splits></_>
        <_>
          <depth>1</depth>
          <value>-4.4068302674060825e-02</value></_>
        <_>
          <depth>1</depth>
          <value>3.6491686628621639e-01</value></_></nodes></_>
    <_>
      <nodes>
        <_>
          <depth>0</depth>
          <value>8.0757800381699599e-10</value>
          <splits>
            <_><var>2</var>
              <quality>1.6197802498936653e-02</quality>
              <le>2.2360900044441223e-01</le></_></splits></_>
        <_>
          <depth>1</depth>
          <value>3.2819426442423458e-02</value></_>
        <_>
          <depth>1</depth>
          <value>-5.4096796927089308e-01</value></_></nodes></_>
    <_>
      <nodes>
        <_>
          <depth>0</depth>
          <value>-2.5765614153123519e-09</value>
          <splits>
            <_><var>16</var>
              <quality>1.3574209064245224e-02</quality>
              <le>8.8282001018524170e-01</le></_></splits></_>
        <_>
          <depth>1</depth>
          <value>-4.0694801946054282e-01</value></_>
        <_>
          <depth>1</depth>
          <value>3.5191962076694075e-02</value></_></nodes></_>
    <_>
      <nodes>
        <_>
          <depth>0</depth>
          <value>2.1495141176312059e-09</value>
          <splits>
            <_><var>16</var>
              <quality>2.1834209561347961e-02</quality>
              <le>1.2773540019989014e+00</le></_></splits></_>
        <_>
          <depth>1</depth>
          <value>1.3149426070281811e-01</value></_>
        <_>
          <depth>1</depth>
          <value>-1.6858185836902451e-01</value></_></nodes></_>
    <_>
      <nodes>
        <_>
          <depth>0</depth>
          <value>3.7994769408435768e-09</value>
          <splits>
            <_><var>16</var>
              <quality>3.1290072947740555e-02</quality>
              <le>4.3243446350097656e+00</le></_></splits></_>
        <_>
          <depth>1</depth>
          <value>-1.1402794276755204e-01</value></_>
        <_>
          <depth>1</depth>
          <value>2.8290907223408651e-01</value></_></nodes></_>
    <_>
      <nodes>
        <_>
          <depth>0</depth>
          <value>-2.4352031508347262e-10</value>
          <splits>
            <_><var>16</var>
              <quality>2.9303738847374916e-02</quality>
              <le>4.9831113815307617e+00</le></_></splits></_>
        <_>
          <depth>1</depth>
          <value>6.7760775285263058e-02</value></_>
        <_>
          <depth>1</depth>
          <value>-4.6373127757057619e-01</value></_></nodes></_>
    <_>
      <nodes>
        <_>
          <depth>0</depth>
          <value>3.4022449186531779e-09</value>
          <splits>
            <_><var>5</var>
              <quality>1.6460927203297615e-02</quality>
              <le>1.3242299854755402e-01</le></_></splits></_>
        <_>
          <depth>1</depth>
          <value>3.0299088946770253e-01</value></_>
        <_>
          <depth>1</depth>
          <value>-5.6039130604605650e-02</value></_></nodes></_>
    <_>
      <nodes>
        <_>
          <depth>0</depth>
          <value>2.2369643864958863e-09</value>
          <splits>
            <_><var>3</var>
              <quality>2.0391222089529037e-02</quality>
              <le>2.9561001062393188e-01</le></_></splits></_>
        <_>
          <depth>1</depth>
          <value>-2.6609509287537453e-01</value></_>
        <_>
          <depth>1</depth>
          <value>7.8592945734271544e-02</value></_></nodes></_>
    <_>
      <nodes>
        <_>
          <depth>0</depth>
          <value>-2.0411716765425795e-10</value>
          <splits>
            <_><var>11</var>
              <quality>1.4273645356297493e-02</quality>
              <le>1.6837999224662781e-02</le></_></splits></_>
        <_>
          <depth>1</depth>
          <value>2.7407613135366143e-01</value></_>
        <_>
          <depth>1</depth>
          <value>-5.3427442560534784e-02</value></_></nodes></_>
    <_>
      <nodes>
        <_>
          <depth>0</depth>
          <value>-1.3037881886924897e-10</value>
          <splits>
            <_><var>11</var>
              <quality>1.7847871407866478e-02</quality>
              <le>1.4529999345541000e-02</le></_></splits></_>
        <_>
          <depth>1</depth>
          <value>-4.4923428175752517e-01</value></_>
        <_>
          <depth>1</depth>
          <value>4.2392259844051330e-02</value></_></nodes></_>
    <_>
      <nodes>
        <_>
          <depth>0</depth>
          <value>-1.7554215334398524e-09</value>
          <splits>
            <_><var>6</var>
              <quality>1.6497494652867317e-02</quality>
              <le>2.5731700658798218e-01</le></_></splits></_>
        <_>
          <depth>1</depth>
          <value>4.7667068068845769e-01</value></_>
        <_>
          <depth>1</depth>
          <value>-3.7209425347508110e-02</value></_></nodes></_>
    <_>
      <nodes>
        <_>
          <depth>0</depth>
          <value>-3.3198022120125472e-10</value>
          <splits>
            <_><var>14</var>
              <quality>1.8600575625896454e-02</quality>
              <le>6.4749998273327947e-04</le></_></splits></_>
        <_>
          <depth>1</depth>
          <value>-4.1562395548830455e-01</value></_>
        <_>
          <depth>1</depth>
          <value>4.7336451381918082e-02</value></_></nodes></_>
    <_>
      <nodes>
        <_>
          <depth>0</depth>
          <value>4.4202286256124608e-10</value>
          <splits>
            <_><var>16</var>
              <quality>1.5506402589380741e-02</quality>
              <le>5.5640130043029785e+00</le></_></splits></_>
        <_>
          <depth>1</depth>
          <value>-3.0497070908205477e-02</value></_>
        <_>
          <depth>1</depth>
          <value>5.6085709616648904e-01</value></_></nodes></_>
    <_>
      <nodes>
        <_>
          <depth>0</depth>
          <value>-1.5129910680554423e-09</value>
          <splits>
            <_><var>9</var>
              <quality>1.3782146386802197e-02</quality>
              <le>3.7645900249481201e-01</le></_></splits></_>
        <_>
          <depth>1</depth>
          <value>3.5376072726339686e-01</value></_>
        <_>
          <depth>1</depth>
          <value>-4.0593028312389479e-02</value></_></nodes></_>
    <_>
      <nodes>
        <_>
          <depth>0</depth>
          <value>5.8563265313958282e-10</value>
          <splits>
            <_><var>9</var>
              <quality>2.0633248612284660e-02</quality>
              <le>4.9213901162147522e-01</le></_></splits></_>
        <_>
          <depth>1</depth>
          <value>-2.8285760514808705e-01</value></_>
        <_>
          <depth>1</depth>
          <value>7.5021266717890514e-02</value></_></nodes></_>
    <_>
      <nodes>
        <_>
          <depth>0</depth>
          <value>-1.8913717294812100e-09</value>
          <splits>
            <_><var>16</var>
              <quality>1.6408700495958328e-02</quality>
              <le>1.3414235115051270e+00</le></_></splits></_>
        <_>
          <depth>1</depth>
          <value>1.0339245853397265e-01</value></_>
        <_>
          <depth>1</depth>
          <value>-1.6063573418140489e-01</value></_></nodes></_>
    <_>
      <nodes>
        <_>
          <depth>0</depth>
          <value>1.5457541889228425e-09</value>
          <splits>
            <_><var>16</var>
              <quality>2.3115826770663261e-02</quality>
              <le>4.3243446350097656e+00</le></_></splits></_>
        <_>
          <depth>1</depth>
          <value>-9.5374759859344849e-02</value></_>
        <_>
          <depth>1</depth>
          <value>2.4806919879705561e-01</value></_></nodes></_></trees></opencv_ml_boost>
</opencv_storage>
